<?xml version="1.0"?>
<opencv_storage>
<cascade>
  <stageType>BOOST</stageType>
  <featureType>LBP</featureType>
  <height>70</height>
  <width>40</width>
  <stageParams>
    <boostType>GAB</boostType>
    <minHitRate>9.9900001287460327e-01</minHitRate>
    <maxFalseAlarm>5.0000000000000000e-01</maxFalseAlarm>
    <weightTrimRate>9.4999999999999996e-01</weightTrimRate>
    <maxDepth>1</maxDepth>
    <maxWeakCount>100</maxWeakCount></stageParams>
  <featureParams>
    <maxCatCount>256</maxCatCount>
    <featSize>1</featSize></featureParams>
  <stageNum>12</stageNum>
  <stages>
    <!-- stage 0 -->
    <_>
      <maxWeakCount>3</maxWeakCount>
      <stageThreshold>-1.4885553121566772e+00</stageThreshold>
      <weakClassifiers>
        <_>
          <internalNodes>
            0 -1 51 -1073741825 -1358957089 -113779845 -1535125801
            -338690065 -4200029 -3146849 -17</internalNodes>
          <leafValues>
            -9.1453784704208374e-01 4.5980706810951233e-01</leafValues></_>
        <_>
          <internalNodes>
            0 -1 38 801056623 -1352671777 -336871489 -337904897
            2147187325 -36966513 -69245313 -1025</internalNodes>
          <leafValues>
            -9.3756723403930664e-01 3.1863707304000854e-01</leafValues></_>
        <_>
          <internalNodes>
            0 -1 16 -168493064 -161680429 -107365292 -217860094
            -926028819 1908524175 -45391248 -218103941</internalNodes>
          <leafValues>
            -8.9265453815460205e-01 4.7862318158149719e-01</leafValues></_></weakClassifiers></_>
    <!-- stage 1 -->
    <_>
      <maxWeakCount>4</maxWeakCount>
      <stageThreshold>-1.2085347175598145e+00</stageThreshold>
      <weakClassifiers>
        <_>
          <internalNodes>
            0 -1 50 -1207959553 -1411383329 -1057409 -1344799393
            -2097153 -7343157 -16389 -1</internalNodes>
          <leafValues>
            -9.0227705240249634e-01 2.1348313987255096e-01</leafValues></_>
        <_>
          <internalNodes>
            0 -1 9 803175279 -69476901 -845685386 -572927521 -243385481
            -19139665 -3178713 -513</internalNodes>
          <leafValues>
            -8.6825132369995117e-01 2.9792428016662598e-01</leafValues></_>
        <_>
          <internalNodes>
            0 -1 11 -3080196 2071985877 -752375006 -1154302618 -54141635
            -22025853 2074081034 2012736999</internalNodes>
          <leafValues>
            -9.0299963951110840e-01 3.8558930158615112e-01</leafValues></_>
        <_>
          <internalNodes>
            0 -1 45 -1367363601 686224863 -158273554 788463359
            -309333139 -826541597 -304353409 -421658626</internalNodes>
          <leafValues>
            -8.1694245338439941e-01 5.1886707544326782e-01</leafValues></_></weakClassifiers></_>
    <!-- stage 2 -->
    <_>
      <maxWeakCount>5</maxWeakCount>
      <stageThreshold>-1.5973606109619141e+00</stageThreshold>
      <weakClassifiers>
        <_>
          <internalNodes>
            0 -1 39 -6291457 -1614555265 -99895937 -527413 -690493441
            1326119935 -54527607 -50332161</internalNodes>
          <leafValues>
            -8.7075775861740112e-01 1.5015974640846252e-01</leafValues></_>
        <_>
          <internalNodes>
            0 -1 3 1073725439 -263681 -269886466 -1059862 2040265727
            722033037 -34874636 -167782401</internalNodes>
          <leafValues>
            -7.2350901365280151e-01 4.4918259978294373e-01</leafValues></_>
        <_>
          <internalNodes>
            0 -1 42 1071595311 -1109929793 1448579551 -1344341287
            2131459919 985759885 2106530383 -262145</internalNodes>
          <leafValues>
            -8.7787169218063354e-01 3.9256161451339722e-01</leafValues></_>
        <_>
          <internalNodes>
            0 -1 25 -587268540 -190976556 -538466913 -1171261198
            -10553425 -267925886 -7341624 662174815</internalNodes>
          <leafValues>
            -8.4432375431060791e-01 4.0405407547950745e-01</leafValues></_>
        <_>
          <internalNodes>
            0 -1 5 1069547507 994800469 -247074721 493878214 1536640595
            1939180688 -203686093 -524812320</internalNodes>
          <leafValues>
            -7.0196789503097534e-01 5.2656680345535278e-01</leafValues></_></weakClassifiers></_>
    <!-- stage 3 -->
    <_>
      <maxWeakCount>5</maxWeakCount>
      <stageThreshold>-1.6665781736373901e+00</stageThreshold>
      <weakClassifiers>
        <_>
          <internalNodes>
            0 -1 31 1879048063 -1144006177 -485160813 -67138617 -6558785
            495712687 -85984321 -184549633</internalNodes>
          <leafValues>
            -8.8177824020385742e-01 -5.0359711050987244e-02</leafValues></_>
        <_>
          <internalNodes>
            0 -1 24 -1179649 -1478626914 817987758 -69208881 1469805551
            2011261947 2075913211 -252379148</internalNodes>
          <leafValues>
            -8.5470926761627197e-01 2.3058208823204041e-01</leafValues></_>
        <_>
          <internalNodes>
            0 -1 37 -1380206785 -1266691237 -39846921 -1344881153
            -4359339 1287239827 -3244033 -185204866</internalNodes>
          <leafValues>
            -7.1373492479324341e-01 4.3559992313385010e-01</leafValues></_>
        <_>
          <internalNodes>
            0 -1 30 -1075101713 709874271 424130991 1323191006
            -155451809 1070813783 -271906048 -454037707</internalNodes>
          <leafValues>
            -7.2518974542617798e-01 4.4131234288215637e-01</leafValues></_>
        <_>
          <internalNodes>
            0 -1 10 534069175 498192849 -1819689517 -14827495 1804106367
            1401553050 -1450632329 -67110513</internalNodes>
          <leafValues>
            -8.0506873130798340e-01 4.2354261875152588e-01</leafValues></_></weakClassifiers></_>
    <!-- stage 4 -->
    <_>
      <maxWeakCount>5</maxWeakCount>
      <stageThreshold>-1.9377080202102661e+00</stageThreshold>
      <weakClassifiers>
        <_>
          <internalNodes>
            0 -1 39 -10485793 -1084517993 -1191080545 -8404545
            -811874577 1837607627 -538969617 -50331681</internalNodes>
          <leafValues>
            -8.5073262453079224e-01 1.1428571492433548e-01</leafValues></_>
        <_>
          <internalNodes>
            0 -1 20 734003199 -1228472354 -145165502 -354429448
            971733983 1036531147 1001349117 -159391777</internalNodes>
          <leafValues>
            -7.4807715415954590e-01 2.8773882985115051e-01</leafValues></_>
        <_>
          <internalNodes>
            0 -1 47 668975087 668720637 -786460420 -1361165089
            -169870357 964939779 -1114916707 -168296481</internalNodes>
          <leafValues>
            -7.6661628484725952e-01 3.8288846611976624e-01</leafValues></_>
        <_>
          <internalNodes>
            0 -1 15 -737556 -255001417 -778853542 2136686550 -222547
            -705373813 2133555034 989854299</internalNodes>
          <leafValues>
            -8.9932525157928467e-01 3.3803260326385498e-01</leafValues></_>
        <_>
          <internalNodes>
            0 -1 14 2130362030 -2475012 2030426058 -11035954 1942973224
            1875538539 -78643716 1691843556</internalNodes>
          <leafValues>
            -8.1293702125549316e-01 3.6202499270439148e-01</leafValues></_></weakClassifiers></_>
    <!-- stage 5 -->
    <_>
      <maxWeakCount>5</maxWeakCount>
      <stageThreshold>-1.8540360927581787e+00</stageThreshold>
      <weakClassifiers>
        <_>
          <internalNodes>
            0 -1 40 -142082065 -1614293609 -788377498 -10780333
            1861743323 1158473347 -84149587 -50332929</internalNodes>
          <leafValues>
            -8.7445253133773804e-01 -7.0904642343521118e-02</leafValues></_>
        <_>
          <internalNodes>
            0 -1 27 -111411201 -16386173 -345274294 -7346470 -1148486673
            2057577089 -352344390 -184554498</internalNodes>
          <leafValues>
            -6.5322631597518921e-01 4.0636271238327026e-01</leafValues></_>
        <_>
          <internalNodes>
            0 -1 17 1694347043 -356000521 -473198250 -438569985
            -561421497 568436707 2066035476 -989986817</internalNodes>
          <leafValues>
            -7.9746562242507935e-01 3.4970143437385559e-01</leafValues></_>
        <_>
          <internalNodes>
            0 -1 1 798168579 822536779 -896958075 -1650206193 2047283879
            1631844357 1913352331 -302564495</internalNodes>
          <leafValues>
            -8.1836265325546265e-01 3.0908414721488953e-01</leafValues></_>
        <_>
          <internalNodes>
            0 -1 6 -1479554565 899273693 -1055287974 -136390078
            -94864793 332038275 1770237517 -134743050</internalNodes>
          <leafValues>
            -6.4152371883392334e-01 4.6881726384162903e-01</leafValues></_></weakClassifiers></_>
    <!-- stage 6 -->
    <_>
      <maxWeakCount>5</maxWeakCount>
      <stageThreshold>-1.8075671195983887e+00</stageThreshold>
      <weakClassifiers>
        <_>
          <internalNodes>
            0 -1 48 -421539849 -1232088501 1350803603 -1261963557
            -1063159831 -117333823 -79431286 -84149249</internalNodes>
          <leafValues>
            -8.6621749401092529e-01 -6.7357510328292847e-02</leafValues></_>
        <_>
          <internalNodes>
            0 -1 4 -77 -102772257 -653277217 -153630825 1931638131
            -148930359 1380151671 -185075085</internalNodes>
          <leafValues>
            -7.3625856637954712e-01 2.2609122097492218e-01</leafValues></_>
        <_>
          <internalNodes>
            0 -1 0 1613743140 -1886159363 -740954732 -10494068
            1914437119 -212084289 -1441924099 1202843429</internalNodes>
          <leafValues>
            -7.6470530033111572e-01 3.2806366682052612e-01</leafValues></_>
        <_>
          <internalNodes>
            0 -1 26 -1209204876 -1107518513 -1609960706 -3212546
            467397629 1389332879 -1196430864 1962213294</internalNodes>
          <leafValues>
            -8.2524746656417847e-01 3.0044957995414734e-01</leafValues></_>
        <_>
          <internalNodes>
            0 -1 35 1683680363 -19937801 -1753099362 -232596769
            -12901599 1990777513 -544483033 -193500201</internalNodes>
          <leafValues>
            -7.0318514108657837e-01 4.0843620896339417e-01</leafValues></_></weakClassifiers></_>
    <!-- stage 7 -->
    <_>
      <maxWeakCount>5</maxWeakCount>
      <stageThreshold>-1.9824558496475220e+00</stageThreshold>
      <weakClassifiers>
        <_>
          <internalNodes>
            0 -1 41 -272631857 2145374715 -569451009 -1145121509
            -295043141 -73673809 -2883585 -16779521</internalNodes>
          <leafValues>
            -8.3499544858932495e-01 6.2015503644943237e-02</leafValues></_>
        <_>
          <internalNodes>
            0 -1 34 -285315549 -288176185 -83230733 -805908995
            -1432387987 -1701196941 -105972369 -457781386</internalNodes>
          <leafValues>
            -7.9812794923782349e-01 1.7727370560169220e-01</leafValues></_>
        <_>
          <internalNodes>
            0 -1 19 -1297137793 1050121622 1661337562 -218114038
            997145599 764401803 2141945580 -185467438</internalNodes>
          <leafValues>
            -7.3580861091613770e-01 3.6168271303176880e-01</leafValues></_>
        <_>
          <internalNodes>
            0 -1 7 1741108595 -309869315 -241317377 -15542563 2145614709
            -606910277 1867741045 -52168585</internalNodes>
          <leafValues>
            -7.2401380538940430e-01 4.1422528028488159e-01</leafValues></_>
        <_>
          <internalNodes>
            0 -1 44 1325292661 -148931821 -754724821 126607361 855831067
            -670304237 -1082093681 174576511</internalNodes>
          <leafValues>
            -7.6192265748977661e-01 4.0291363000869751e-01</leafValues></_></weakClassifiers></_>
    <!-- stage 8 -->
    <_>
      <maxWeakCount>4</maxWeakCount>
      <stageThreshold>-2.0738055706024170e+00</stageThreshold>
      <weakClassifiers>
        <_>
          <internalNodes>
            0 -1 28 -581239299 -577433449 421229310 -46317561
            -1149179713 -1404759 -1693721685 -1081404641</internalNodes>
          <leafValues>
            -8.3483755588531494e-01 9.6774190664291382e-02</leafValues></_>
        <_>
          <internalNodes>
            0 -1 12 -799248521 494879319 -1052374242 -673488069
            1216903855 1006586511 1267198894 796164058</internalNodes>
          <leafValues>
            -7.9512035846710205e-01 2.0003262162208557e-01</leafValues></_>
        <_>
          <internalNodes>
            0 -1 23 -2821124 -674741336 -770997302 -170718321
            -1148289150 -16004480 2145107900 1004499899</internalNodes>
          <leafValues>
            -7.8758710622787476e-01 3.1709706783294678e-01</leafValues></_>
        <_>
          <internalNodes>
            0 -1 18 133973940 -608779778 -1138909910 -289866421
            1052716031 2072610973 -73839878 -1215365449</internalNodes>
          <leafValues>
            -7.6094478368759155e-01 3.2193288207054138e-01</leafValues></_></weakClassifiers></_>
    <!-- stage 9 -->
    <_>
      <maxWeakCount>4</maxWeakCount>
      <stageThreshold>-1.2095805406570435e+00</stageThreshold>
      <weakClassifiers>
        <_>
          <internalNodes>
            0 -1 33 491864059 -103183919 -654272513 -36365867
            -1182123265 -90144535 -1416970305 -5535601</internalNodes>
          <leafValues>
            -8.4184366464614868e-01 1.4741036295890808e-01</leafValues></_>
        <_>
          <internalNodes>
            0 -1 49 2136554495 786420945 1024423371 1851750271
            -611058693 -1097291729 -1150173201 -1124095233</internalNodes>
          <leafValues>
            -7.8529947996139526e-01 2.1448616683483124e-01</leafValues></_>
        <_>
          <internalNodes>
            0 -1 22 -1344323729 1072806383 -1221771350 -1429637937
            -1089589377 2142230686 -72665305 -268436482</internalNodes>
          <leafValues>
            -7.8846472501754761e-01 3.2239952683448792e-01</leafValues></_>
        <_>
          <internalNodes>
            0 -1 13 2146461560 2134477814 -1617749958 -103421578
            2078170094 1862766799 1525131066 620755942</internalNodes>
          <leafValues>
            -8.9409089088439941e-01 2.8213688731193542e-01</leafValues></_></weakClassifiers></_>
    <!-- stage 10 -->
    <_>
      <maxWeakCount>5</maxWeakCount>
      <stageThreshold>-1.7268755435943604e+00</stageThreshold>
      <weakClassifiers>
        <_>
          <internalNodes>
            0 -1 29 -192937985 -545664873 -1568108449 -1086074169
            -251271429 -255278536 -636503041 -134744477</internalNodes>
          <leafValues>
            -8.2905983924865723e-01 7.0539422333240509e-02</leafValues></_>
        <_>
          <internalNodes>
            0 -1 21 -149836321 -540980782 -1072610051 847007964
            -779586625 1797509523 987818472 -454560773</internalNodes>
          <leafValues>
            -7.1865671873092651e-01 2.2385635972023010e-01</leafValues></_>
        <_>
          <internalNodes>
            0 -1 43 805252975 -1215083017 -1076364369 -1109729745
            1069756283 1906665935 -1107073 -68158785</internalNodes>
          <leafValues>
            -7.8201359510421753e-01 3.2384768128395081e-01</leafValues></_>
        <_>
          <internalNodes>
            0 -1 2 -47023311 1436441308 274465499 -108015539 1372346605
            1771774091 -70433875 2057533287</internalNodes>
          <leafValues>
            -7.9036176204681396e-01 3.1562387943267822e-01</leafValues></_>
        <_>
          <internalNodes>
            0 -1 8 -719853765 -942323490 -1023355490 -1883121585
            1602320499 965444642 -666111385 -170132779</internalNodes>
          <leafValues>
            -6.5528237819671631e-01 4.4269078969955444e-01</leafValues></_></weakClassifiers></_>
    <!-- stage 11 -->
    <_>
      <maxWeakCount>4</maxWeakCount>
      <stageThreshold>-1.6728039979934692e+00</stageThreshold>
      <weakClassifiers>
        <_>
          <internalNodes>
            0 -1 32 1073692031 803206047 -671132953 -268445763 -25081475
            -127354837 -7374469 -561</internalNodes>
          <leafValues>
            -9.4299012422561646e-01 -2.7516779303550720e-01</leafValues></_>
        <_>
          <internalNodes>
            0 -1 52 771706703 803200791 -277121717 -1360004995
            -139920461 -8458517 -237249985 -3073</internalNodes>
          <leafValues>
            -8.5032916069030762e-01 2.2364883124828339e-01</leafValues></_>
        <_>
          <internalNodes>
            0 -1 46 805273063 788386589 -541851729 -285288577
            -1544590469 -105515633 -2478236 -321716737</internalNodes>
          <leafValues>
            -7.9231315851211548e-01 3.7831699848175049e-01</leafValues></_>
        <_>
          <internalNodes>
            0 -1 36 268187235 797440223 -1344279282 -94703297 -86278273
            -610272034 -1380538 -186583212</internalNodes>
          <leafValues>
            -8.2897192239761353e-01 3.6038145422935486e-01</leafValues></_></weakClassifiers></_></stages>
  <features>
    <_>
      <rect>
        0 1 11 8</rect></_>
    <_>
      <rect>
        0 7 3 13</rect></_>
    <_>
      <rect>
        0 20 4 13</rect></_>
    <_>
      <rect>
        0 23 12 5</rect></_>
    <_>
      <rect>
        0 42 4 3</rect></_>
    <_>
      <rect>
        0 43 7 6</rect></_>
    <_>
      <rect>
        0 43 9 4</rect></_>
    <_>
      <rect>
        0 47 4 4</rect></_>
    <_>
      <rect>
        0 58 3 2</rect></_>
    <_>
      <rect>
        0 61 2 3</rect></_>
    <_>
      <rect>
        0 64 5 2</rect></_>
    <_>
      <rect>
        1 21 9 12</rect></_>
    <_>
      <rect>
        1 26 7 14</rect></_>
    <_>
      <rect>
        1 26 8 8</rect></_>
    <_>
      <rect>
        2 4 12 12</rect></_>
    <_>
      <rect>
        2 13 12 19</rect></_>
    <_>
      <rect>
        2 14 11 15</rect></_>
    <_>
      <rect>
        3 15 7 4</rect></_>
    <_>
      <rect>
        4 26 7 5</rect></_>
    <_>
      <rect>
        6 15 5 8</rect></_>
    <_>
      <rect>
        7 22 6 6</rect></_>
    <_>
      <rect>
        7 49 11 3</rect></_>
    <_>
      <rect>
        11 55 5 5</rect></_>
    <_>
      <rect>
        12 16 6 18</rect></_>
    <_>
      <rect>
        12 38 7 5</rect></_>
    <_>
      <rect>
        13 0 9 20</rect></_>
    <_>
      <rect>
        13 30 9 5</rect></_>
    <_>
      <rect>
        13 34 9 6</rect></_>
    <_>
      <rect>
        14 34 6 2</rect></_>
    <_>
      <rect>
        15 42 5 7</rect></_>
    <_>
      <rect>
        15 49 4 5</rect></_>
    <_>
      <rect>
        16 37 8 8</rect></_>
    <_>
      <rect>
        16 67 1 1</rect></_>
    <_>
      <rect>
        16 67 4 1</rect></_>
    <_>
      <rect>
        17 3 5 5</rect></_>
    <_>
      <rect>
        17 17 5 3</rect></_>
    <_>
      <rect>
        17 31 1 1</rect></_>
    <_>
      <rect>
        19 20 7 6</rect></_>
    <_>
      <rect>
        20 64 1 2</rect></_>
    <_>
      <rect>
        22 34 6 8</rect></_>
    <_>
      <rect>
        22 35 6 8</rect></_>
    <_>
      <rect>
        22 37 6 8</rect></_>
    <_>
      <rect>
        22 61 2 3</rect></_>
    <_>
      <rect>
        23 67 1 1</rect></_>
    <_>
      <rect>
        27 1 4 19</rect></_>
    <_>
      <rect>
        28 45 4 4</rect></_>
    <_>
      <rect>
        30 53 1 1</rect></_>
    <_>
      <rect>
        30 57 3 4</rect></_>
    <_>
      <rect>
        31 30 3 8</rect></_>
    <_>
      <rect>
        31 55 3 2</rect></_>
    <_>
      <rect>
        31 61 3 3</rect></_>
    <_>
      <rect>
        33 60 2 3</rect></_>
    <_>
      <rect>
        36 66 1 1</rect></_></features></cascade>
</opencv_storage>
